<?xml version="1.0"?>
<opencv_storage>
<cascade>
  <stageType>BOOST</stageType>
  <featureType>HAAR</featureType>
  <height>24</height>
  <width>24</width>
  <stageParams>
    <boostType>GAB</boostType>
    <minHitRate>9.9500000476837158e-01</minHitRate>
    <maxFalseAlarm>5.0000000000000000e-01</maxFalseAlarm>
    <weightTrimRate>9.4999998807907104e-01</weightTrimRate>
    <maxDepth>1</maxDepth>
    <maxWeakCount>100</maxWeakCount></stageParams>
  <featureParams>
    <maxCatCount>0</maxCatCount>
    <featSize>1</featSize>
    <mode>BASIC</mode></featureParams>
  <stageNum>20</stageNum>
  <stages>
    <!-- stage 0 -->
    <_>
      <maxWeakCount>18</maxWeakCount>
      <stageThreshold>-1.5942012071609497e+00</stageThreshold>
      <weakClassifiers>
        <_>
          <internalNodes>
            0 -1 43 -4.5704543590545654e-02</internalNodes>
          <leafValues>
            1.5245477855205536e-01 -5.8801496028900146e-01</leafValues></_>
        <_>
          <internalNodes>
            0 -1 94 -1.3923820108175278e-02</internalNodes>
          <leafValues>
            2.2075241804122925e-01 -5.6632876396179199e-01</leafValues></_>
        <_>
          <internalNodes>
            0 -1 265 -7.0303874090313911e-03</internalNodes>
          <leafValues>
            7.1896719932556152e-01 -1.5804095566272736e-01</leafValues></_>
        <_>
          <internalNodes>
            0 -1 35 -1.8329730257391930e-02</internalNodes>
          <leafValues>
            7.8026235103607178e-01 -9.9236942827701569e-02</leafValues></_>
        <_>
          <internalNodes>
            0 -1 9 -1.3649286702275276e-02</internalNodes>
          <leafValues>
            3.9431843161582947e-01 -2.3861438035964966e-01</leafValues></_>
        <_>
          <internalNodes>
            0 -1 536 2.0600544288754463e-02</internalNodes>
          <leafValues>
            1.0175249725580215e-01 -7.7160334587097168e-01</leafValues></_>
        <_>
          <internalNodes>
            0 -1 190 -3.8696248084306717e-03</internalNodes>
          <leafValues>
            5.8428406715393066e-01 -1.3872016966342926e-01</leafValues></_>
        <_>
          <internalNodes>
            0 -1 330 1.6862715128809214e-03</internalNodes>
          <leafValues>
            1.1250440031290054e-01 -6.3855242729187012e-01</leafValues></_>
        <_>
          <internalNodes>
            0 -1 72 1.5972651541233063e-02</internalNodes>
          <leafValues>
            -1.4508782327175140e-01 4.5901703834533691e-01</leafValues></_>
        <_>
          <internalNodes>
            0 -1 218 -1.9240645924583077e-03</internalNodes>
          <leafValues>
            3.5703280568122864e-01 -2.0153313875198364e-01</leafValues></_>
        <_>
          <internalNodes>
            0 -1 362 -3.0705200042575598e-03</internalNodes>
          <leafValues>
            -7.1553194522857666e-01 1.1226235330104828e-01</leafValues></_>
        <_>
          <internalNodes>
            0 -1 347 4.2290030978620052e-03</internalNodes>
          <leafValues>
            -1.7355346679687500e-01 4.2555794119834900e-01</leafValues></_>
        <_>
          <internalNodes>
            0 -1 514 -2.1522119641304016e-03</internalNodes>
          <leafValues>
            -8.6796712875366211e-01 1.0415494441986084e-01</leafValues></_>
        <_>
          <internalNodes>
            0 -1 316 -3.3180033788084984e-03</internalNodes>
          <leafValues>
            3.1895962357521057e-01 -2.2886256873607635e-01</leafValues></_>
        <_>
          <internalNodes>
            0 -1 544 7.6874159276485443e-04</internalNodes>
          <leafValues>
            1.1186469346284866e-01 -6.6533285379409790e-01</leafValues></_>
        <_>
          <internalNodes>
            0 -1 93 5.7078292593359947e-03</internalNodes>
          <leafValues>
            -2.0476576685905457e-01 4.3976753950119019e-01</leafValues></_>
        <_>
          <internalNodes>
            0 -1 317 4.6081645996309817e-04</internalNodes>
          <leafValues>
            -1.4638639986515045e-01 4.6430605649948120e-01</leafValues></_>
        <_>
          <internalNodes>
            0 -1 332 -9.9638930987566710e-04</internalNodes>
          <leafValues>
            -6.4137673377990723e-01 1.1947248876094818e-01</leafValues></_></weakClassifiers></_>
    <!-- stage 1 -->
    <_>
      <maxWeakCount>14</maxWeakCount>
      <stageThreshold>-1.5071668624877930e+00</stageThreshold>
      <weakClassifiers>
        <_>
          <internalNodes>
            0 -1 120 1.1082066223025322e-02</internalNodes>
          <leafValues>
            -4.7826087474822998e-01 4.0909090638160706e-01</leafValues></_>
        <_>
          <internalNodes>
            0 -1 120 -9.9775977432727814e-03</internalNodes>
          <leafValues>
            6.1920583248138428e-01 -2.1585480868816376e-01</leafValues></_>
        <_>
          <internalNodes>
            0 -1 244 -1.3087822298984975e-04</internalNodes>
          <leafValues>
            3.6549177765846252e-01 -2.7805197238922119e-01</leafValues></_>
        <_>
          <internalNodes>
            0 -1 271 -1.5651053399778903e-04</internalNodes>
          <leafValues>
            3.6322906613349915e-01 -2.7266657352447510e-01</leafValues></_>
        <_>
          <internalNodes>
            0 -1 292 -3.6751904990524054e-03</internalNodes>
          <leafValues>
            5.4576325416564941e-01 -1.7787991464138031e-01</leafValues></_>
        <_>
          <internalNodes>
            0 -1 112 8.6675174534320831e-03</internalNodes>
          <leafValues>
            -1.3940508663654327e-01 7.0153015851974487e-01</leafValues></_>
        <_>
          <internalNodes>
            0 -1 418 8.0818638205528259e-02</internalNodes>
          <leafValues>
            1.4367379248142242e-01 -7.6095670461654663e-01</leafValues></_>
        <_>
          <internalNodes>
            0 -1 86 6.5333973616361618e-03</internalNodes>
          <leafValues>
            -1.4819532632827759e-01 6.6778576374053955e-01</leafValues></_>
        <_>
          <internalNodes>
            0 -1 21 1.3405835255980492e-02</internalNodes>
          <leafValues>
            -1.4855632185935974e-01 5.3169363737106323e-01</leafValues></_>
        <_>
          <internalNodes>
            0 -1 127 -1.8116035789716989e-04</internalNodes>
          <leafValues>
            3.6968907713890076e-01 -2.5312572717666626e-01</leafValues></_>
        <_>
          <internalNodes>
            0 -1 252 -1.3846574351191521e-02</internalNodes>
          <leafValues>
            4.2589625716209412e-01 -1.7482452094554901e-01</leafValues></_>
        <_>
          <internalNodes>
            0 -1 406 -3.4278302919119596e-03</internalNodes>
          <leafValues>
            5.2683764696121216e-01 -1.6557647287845612e-01</leafValues></_>
        <_>
          <internalNodes>
            0 -1 485 -6.4291532908100635e-05</internalNodes>
          <leafValues>
            2.9820308089256287e-01 -2.7020329236984253e-01</leafValues></_>
        <_>
          <internalNodes>
            0 -1 274 -2.6732191327027977e-04</internalNodes>
          <leafValues>
            2.3082499206066132e-01 -3.3702367544174194e-01</leafValues></_></weakClassifiers></_>
    <!-- stage 2 -->
    <_>
      <maxWeakCount>18</maxWeakCount>
      <stageThreshold>-1.4603041410446167e+00</stageThreshold>
      <weakClassifiers>
        <_>
          <internalNodes>
            0 -1 191 -8.9643737301230431e-03</internalNodes>
          <leafValues>
            3.1521740555763245e-01 -4.6812748908996582e-01</leafValues></_>
        <_>
          <internalNodes>
            0 -1 163 -2.2982716560363770e-02</internalNodes>
          <leafValues>
            5.8638739585876465e-01 -1.6781914234161377e-01</leafValues></_>
        <_>
          <internalNodes>
            0 -1 229 -2.3469951003789902e-02</internalNodes>
          <leafValues>
            5.7779318094253540e-01 -1.7059767246246338e-01</leafValues></_>
        <_>
          <internalNodes>
            0 -1 13 -2.2471747361123562e-03</internalNodes>
          <leafValues>
            3.4412607550621033e-01 -2.3133426904678345e-01</leafValues></_>
        <_>
          <internalNodes>
            0 -1 355 -2.8295331867411733e-04</internalNodes>
          <leafValues>
            2.7935373783111572e-01 -2.7279400825500488e-01</leafValues></_>
        <_>
          <internalNodes>
            0 -1 144 -1.4755020849406719e-02</internalNodes>
          <leafValues>
            7.1275174617767334e-01 -9.4555310904979706e-02</leafValues></_>
        <_>
          <internalNodes>
            0 -1 216 4.9600168131291866e-03</internalNodes>
          <leafValues>
            -1.5262772142887115e-01 4.5010930299758911e-01</leafValues></_>
        <_>
          <internalNodes>
            0 -1 184 3.4953476861119270e-03</internalNodes>
          <leafValues>
            -1.4273346960544586e-01 4.9791824817657471e-01</leafValues></_>
        <_>
          <internalNodes>
            0 -1 496 -4.5817727368557826e-05</internalNodes>
          <leafValues>
            3.4046769142150879e-01 -2.0516303181648254e-01</leafValues></_>
        <_>
          <internalNodes>
            0 -1 225 -5.0936185289174318e-05</internalNodes>
          <leafValues>
            2.5390264391899109e-01 -2.4979913234710693e-01</leafValues></_>
        <_>
          <internalNodes>
            0 -1 268 -2.8665855061262846e-03</internalNodes>
          <leafValues>
            5.6889450550079346e-01 -1.0808725655078888e-01</leafValues></_>
        <_>
          <internalNodes>
            0 -1 533 6.9455895572900772e-03</internalNodes>
          <leafValues>
            1.1522071063518524e-01 -6.4370030164718628e-01</leafValues></_>
        <_>
          <internalNodes>
            0 -1 410 -7.4835930718109012e-05</internalNodes>
          <leafValues>
            2.8205624222755432e-01 -2.6177847385406494e-01</leafValues></_>
        <_>
          <internalNodes>
            0 -1 448 6.8382461904548109e-05</internalNodes>
          <leafValues>
            -1.9090858101844788e-01 3.4433305263519287e-01</leafValues></_>
        <_>
          <internalNodes>
            0 -1 293 -2.1050288341939449e-03</internalNodes>
          <leafValues>
            4.0869909524917603e-01 -1.5407274663448334e-01</leafValues></_>
        <_>
          <internalNodes>
            0 -1 58 -7.9576358199119568e-02</internalNodes>
          <leafValues>
            8.2087081670761108e-01 -8.1102132797241211e-02</leafValues></_>
        <_>
          <internalNodes>
            0 -1 503 -9.0182133135385811e-05</internalNodes>
          <leafValues>
            3.3521237969398499e-01 -2.1199081838130951e-01</leafValues></_>
        <_>
          <internalNodes>
            0 -1 321 -2.0130794495344162e-02</internalNodes>
          <leafValues>
            4.7301965951919556e-01 -1.3184741139411926e-01</leafValues></_></weakClassifiers></_>
    <!-- stage 3 -->
    <_>
      <maxWeakCount>17</maxWeakCount>
      <stageThreshold>-1.0999455451965332e+00</stageThreshold>
      <weakClassifiers>
        <_>
          <internalNodes>
            0 -1 113 -2.5465417653322220e-02</internalNodes>
          <leafValues>
            6.5853661298751831e-01 -4.2133814096450806e-01</leafValues></_>
        <_>
          <internalNodes>
            0 -1 79 4.6520573087036610e-03</internalNodes>
          <leafValues>
            -1.9902554154396057e-01 4.0921857953071594e-01</leafValues></_>
        <_>
          <internalNodes>
            0 -1 466 -1.1720648035407066e-03</internalNodes>
          <leafValues>
            -7.0905274152755737e-01 1.2737528979778290e-01</leafValues></_>
        <_>
          <internalNodes>
            0 -1 137 -1.2467592023313046e-03</internalNodes>
          <leafValues>
            2.7425512671470642e-01 -2.3694294691085815e-01</leafValues></_>
        <_>
          <internalNodes>
            0 -1 371 -1.2298335786908865e-03</internalNodes>
          <leafValues>
            3.0674412846565247e-01 -2.0577578246593475e-01</leafValues></_>
        <_>
          <internalNodes>
            0 -1 40 3.6628495901823044e-02</internalNodes>
          <leafValues>
            -1.3808630406856537e-01 5.5425500869750977e-01</leafValues></_>
        <_>
          <internalNodes>
            0 -1 220 -1.3690073683392256e-04</internalNodes>
          <leafValues>
            2.8411877155303955e-01 -2.1870297193527222e-01</leafValues></_>
        <_>
          <internalNodes>
            0 -1 500 -1.5160823240876198e-03</internalNodes>
          <leafValues>
            -6.8425428867340088e-01 8.9811459183692932e-02</leafValues></_>
        <_>
          <internalNodes>
            0 -1 445 -1.1313974391669035e-03</internalNodes>
          <leafValues>
            1.9276599586009979e-01 -3.7672081589698792e-01</leafValues></_>
        <_>
          <internalNodes>
            0 -1 279 1.4812758564949036e-01</internalNodes>
          <leafValues>
            9.0220861136913300e-02 -6.5251892805099487e-01</leafValues></_>
        <_>
          <internalNodes>
            0 -1 319 1.9992936402559280e-02</internalNodes>
          <leafValues>
            -1.2780235707759857e-01 5.4033291339874268e-01</leafValues></_>
        <_>
          <internalNodes>
            0 -1 20 1.1244089901447296e-01</internalNodes>
          <leafValues>
            8.9788421988487244e-02 -7.9407501220703125e-01</leafValues></_>
        <_>
          <internalNodes>
            0 -1 468 2.4215711746364832e-03</internalNodes>
          <leafValues>
            5.5768039077520370e-02 -8.2842713594436646e-01</leafValues></_>
        <_>
          <internalNodes>
            0 -1 143 8.3115119487047195e-03</internalNodes>
          <leafValues>
            -1.6648273169994354e-01 3.6063703894615173e-01</leafValues></_>
        <_>
          <internalNodes>
            0 -1 81 1.0385674424469471e-02</internalNodes>
          <leafValues>
            -9.6247382462024689e-02 5.4994815587997437e-01</leafValues></_>
        <_>
          <internalNodes>
            0 -1 455 1.3059886987321079e-04</internalNodes>
          <leafValues>
            -1.9133533537387848e-01 3.3436408638954163e-01</leafValues></_>
        <_>
          <internalNodes>
            0 -1 482 -7.2672570240683854e-05</internalNodes>
          <leafValues>
            3.1572002172470093e-01 -1.9021111726760864e-01</leafValues></_></weakClassifiers></_>
    <!-- stage 4 -->
    <_>
      <maxWeakCount>19</maxWeakCount>
      <stageThreshold>-1.1457769870758057e+00</stageThreshold>
      <weakClassifiers>
        <_>
          <internalNodes>
            0 -1 294 -3.0996441841125488e-02</internalNodes>
          <leafValues>
            5.1898735761642456e-01 -4.0847611427307129e-01</leafValues></_>
        <_>
          <internalNodes>
            0 -1 413 4.3116295710206032e-03</internalNodes>
          <leafValues>
            6.8056084215641022e-02 -6.5957003831863403e-01</leafValues></_>
        <_>
          <internalNodes>
            0 -1 522 -1.4099404215812683e-03</internalNodes>
          <leafValues>
            -7.2327435016632080e-01 1.0811022669076920e-01</leafValues></_>
        <_>
          <internalNodes>
            0 -1 457 1.6410655807703733e-03</internalNodes>
          <leafValues>
            1.2072218954563141e-01 -6.5677279233932495e-01</leafValues></_>
        <_>
          <internalNodes>
            0 -1 354 -6.0778567567467690e-03</internalNodes>
          <leafValues>
            3.4662115573883057e-01 -1.8103224039077759e-01</leafValues></_>
        <_>
          <internalNodes>
            0 -1 529 8.1630889326334000e-04</internalNodes>
          <leafValues>
            9.3998067080974579e-02 -7.3600244522094727e-01</leafValues></_>
        <_>
          <internalNodes>
            0 -1 102 -2.2386092692613602e-02</internalNodes>
          <leafValues>
            4.3523275852203369e-01 -1.4855372905731201e-01</leafValues></_>
        <_>
          <internalNodes>
            0 -1 488 -7.8748841769993305e-04</internalNodes>
          <leafValues>
            -6.0499495267868042e-01 1.1236563324928284e-01</leafValues></_>
        <_>
          <internalNodes>
            0 -1 285 -4.0470431558787823e-03</internalNodes>
          <leafValues>
            3.7550392746925354e-01 -1.7104600369930267e-01</leafValues></_>
        <_>
          <internalNodes>
            0 -1 525 8.7753101252019405e-04</internalNodes>
          <leafValues>
            7.3508560657501221e-02 -8.2768607139587402e-01</leafValues></_>
        <_>
          <internalNodes>
            0 -1 83 9.3322470784187317e-03</internalNodes>
          <leafValues>
            -1.0683374106884003e-01 5.5776530504226685e-01</leafValues></_>
        <_>
          <internalNodes>
            0 -1 222 -1.1056944727897644e-02</internalNodes>
          <leafValues>
            7.3574119806289673e-01 -6.8758897483348846e-02</leafValues></_>
        <_>
          <internalNodes>
            0 -1 10 -3.0763905495405197e-02</internalNodes>
          <leafValues>
            1.7922179400920868e-01 -3.5379493236541748e-01</leafValues></_>
        <_>
          <internalNodes>
            0 -1 453 -2.5241654366254807e-03</internalNodes>
          <leafValues>
            -6.3191699981689453e-01 9.0263336896896362e-02</leafValues></_>
        <_>
          <internalNodes>
            0 -1 385 2.7088988572359085e-03</internalNodes>
          <leafValues>
            -1.3319326937198639e-01 4.1939923167228699e-01</leafValues></_>
        <_>
          <internalNodes>
            0 -1 488 7.0930935908108950e-04</internalNodes>
          <leafValues>
            1.0625228285789490e-01 -5.9052526950836182e-01</leafValues></_>
        <_>
          <internalNodes>
            0 -1 29 2.2807519882917404e-02</internalNodes>
          <leafValues>
            -8.4060080349445343e-02 7.8785210847854614e-01</leafValues></_>
        <_>
          <internalNodes>
            0 -1 204 -9.0423869551159441e-05</internalNodes>
          <leafValues>
            2.5171977281570435e-01 -2.1136806905269623e-01</leafValues></_>
        <_>
          <internalNodes>
            0 -1 523 -5.0937343621626496e-04</internalNodes>
          <leafValues>
            1.9254194200038910e-01 -2.7907106280326843e-01</leafValues></_></weakClassifiers></_>
    <!-- stage 5 -->
    <_>
      <maxWeakCount>22</maxWeakCount>
      <stageThreshold>-1.1879353523254395e+00</stageThreshold>
      <weakClassifiers>
        <_>
          <internalNodes>
            0 -1 117 4.0649902075529099e-02</internalNodes>
          <leafValues>
            -4.0942028164863586e-01 4.7619047760963440e-01</leafValues></_>
        <_>
          <internalNodes>
            0 -1 80 -3.6027431488037109e-02</internalNodes>
          <leafValues>
            5.3320103883743286e-01 -1.6980813443660736e-01</leafValues></_>
        <_>
          <internalNodes>
            0 -1 51 7.2904257103800774e-04</internalNodes>
          <leafValues>
            1.5157224237918854e-01 -6.0562133789062500e-01</leafValues></_>
        <_>
          <internalNodes>
            0 -1 7 1.6851894557476044e-02</internalNodes>
          <leafValues>
            -1.2546581029891968e-01 3.6373284459114075e-01</leafValues></_>
        <_>
          <internalNodes>
            0 -1 198 1.6769004985690117e-02</internalNodes>
          <leafValues>
            -1.2095248699188232e-01 5.7081896066665649e-01</leafValues></_>
        <_>
          <internalNodes>
            0 -1 518 -2.3769587278366089e-03</internalNodes>
          <leafValues>
            -7.6168924570083618e-01 9.3831792473793030e-02</leafValues></_>
        <_>
          <internalNodes>
            0 -1 450 -8.8453255593776703e-03</internalNodes>
          <leafValues>
            -6.9508874416351318e-01 6.4023181796073914e-02</leafValues></_>
        <_>
          <internalNodes>
            0 -1 257 -9.4745680689811707e-03</internalNodes>
          <leafValues>
            5.4045659303665161e-01 -1.0403440892696381e-01</leafValues></_>
        <_>
          <internalNodes>
            0 -1 272 1.8386268056929111e-03</internalNodes>
          <leafValues>
            9.2104285955429077e-02 -5.4920405149459839e-01</leafValues></_>
        <_>
          <internalNodes>
            0 -1 207 -1.8233708105981350e-03</internalNodes>
          <leafValues>
            2.7333644032478333e-01 -1.8960534036159515e-01</leafValues></_>
        <_>
          <internalNodes>
            0 -1 386 1.1310671456158161e-02</internalNodes>
          <leafValues>
            -1.1851875483989716e-01 4.1479262709617615e-01</leafValues></_>
        <_>
          <internalNodes>
            0 -1 107 -4.4440649449825287e-02</internalNodes>
          <leafValues>
            4.0108659863471985e-01 -1.4773446321487427e-01</leafValues></_>
        <_>
          <internalNodes>
            0 -1 512 4.4219465926289558e-03</internalNodes>
          <leafValues>
            6.7380584776401520e-02 -7.4075740575790405e-01</leafValues></_>
        <_>
          <internalNodes>
            0 -1 493 1.6464632935822010e-03</internalNodes>
          <leafValues>
            1.1641420423984528e-01 -4.3849343061447144e-01</leafValues></_>
        <_>
          <internalNodes>
            0 -1 251 6.7508020438253880e-03</internalNodes>
          <leafValues>
            -1.3001357018947601e-01 4.0859046578407288e-01</leafValues></_>
        <_>
          <internalNodes>
            0 -1 549 -1.1180831352248788e-03</internalNodes>
          <leafValues>
            -7.2230470180511475e-01 7.0206627249717712e-02</leafValues></_>
        <_>
          <internalNodes>
            0 -1 24 1.9966685771942139e-01</internalNodes>
          <leafValues>
            6.4035035669803619e-02 -6.7956376075744629e-01</leafValues></_>
        <_>
          <internalNodes>
            0 -1 36 2.7670169947668910e-04</internalNodes>
          <leafValues>
            -2.2902105748653412e-01 2.2427633404731750e-01</leafValues></_>
        <_>
          <internalNodes>
            0 -1 221 -3.1676188111305237e-02</internalNodes>
          <leafValues>
            5.2002167701721191e-01 -1.0977782309055328e-01</leafValues></_>
        <_>
          <internalNodes>
            0 -1 299 4.7778198495507240e-03</internalNodes>
          <leafValues>
            -1.0244499146938324e-01 4.7303381562232971e-01</leafValues></_>
        <_>
          <internalNodes>
            0 -1 502 2.2163538960739970e-04</internalNodes>
          <leafValues>
            -2.5712180137634277e-01 2.1125659346580505e-01</leafValues></_>
        <_>
          <internalNodes>
            0 -1 417 -2.7882503345608711e-03</internalNodes>
          <leafValues>
            -5.1215773820877075e-01 9.7193703055381775e-02</leafValues></_></weakClassifiers></_>
    <!-- stage 6 -->
    <_>
      <maxWeakCount>23</maxWeakCount>
      <stageThreshold>-1.1325685977935791e+00</stageThreshold>
      <weakClassifiers>
        <_>
          <internalNodes>
            0 -1 238 -1.2061024608556181e-04</internalNodes>
          <leafValues>
            -1.1742424219846725e-01 -5.3030300140380859e-01</leafValues></_>
        <_>
          <internalNodes>
            0 -1 521 -7.5157056562602520e-04</internalNodes>
          <leafValues>
            2.1610504388809204e-01 -2.2426971793174744e-01</leafValues></_>
        <_>
          <internalNodes>
            0 -1 258 6.9255242124199867e-03</internalNodes>
          <leafValues>
            -9.1218307614326477e-02 5.1207774877548218e-01</leafValues></_>
        <_>
          <internalNodes>
            0 -1 23 -5.1212453842163086e-01</internalNodes>
          <leafValues>
            -9.4677197933197021e-01 5.3241536021232605e-02</leafValues></_>
        <_>
          <internalNodes>
            0 -1 142 2.6283124089241028e-01</internalNodes>
          <leafValues>
            5.3802289068698883e-02 -8.9347141981124878e-01</leafValues></_>
        <_>
          <internalNodes>
            0 -1 309 -3.9771972224116325e-03</internalNodes>
          <leafValues>
            -5.2570253610610962e-01 1.0119550675153732e-01</leafValues></_>
        <_>
          <internalNodes>
            0 -1 379 -2.3887525312602520e-03</internalNodes>
          <leafValues>
            -7.8927570581436157e-01 5.7168934494256973e-02</leafValues></_>
        <_>
          <internalNodes>
            0 -1 415 -2.1640859544277191e-01</internalNodes>
          <leafValues>
            -7.9780071973800659e-01 3.7530407309532166e-02</leafValues></_>
        <_>
          <internalNodes>
            0 -1 318 5.7965815067291260e-03</internalNodes>
          <leafValues>
            -8.0675810575485229e-02 6.4044404029846191e-01</leafValues></_>
        <_>
          <internalNodes>
            0 -1 432 7.2520552203059196e-03</internalNodes>
          <leafValues>
            8.6227364838123322e-02 -5.5794882774353027e-01</leafValues></_>
        <_>
          <internalNodes>
            0 -1 267 2.3707471787929535e-02</internalNodes>
          <leafValues>
            -1.0705424845218658e-01 4.5696908235549927e-01</leafValues></_>
        <_>
          <internalNodes>
            0 -1 489 -1.6748335910961032e-03</internalNodes>
          <leafValues>
            -9.1050344705581665e-01 4.3244417756795883e-02</leafValues></_>
        <_>
          <internalNodes>
            0 -1 438 -1.1131048813695088e-04</internalNodes>
          <leafValues>
            2.3501677811145782e-01 -1.9411729276180267e-01</leafValues></_>
        <_>
          <internalNodes>
            0 -1 19 2.6554722338914871e-02</internalNodes>
          <leafValues>
            7.0640347898006439e-02 -7.2953611612319946e-01</leafValues></_>
        <_>
          <internalNodes>
            0 -1 409 -5.1970560889458284e-05</internalNodes>
          <leafValues>
            1.9982261955738068e-01 -2.3168548941612244e-01</leafValues></_>
        <_>
          <internalNodes>
            0 -1 376 3.5828056279569864e-03</internalNodes>
          <leafValues>
            1.0369495302438736e-01 -4.4727280735969543e-01</leafValues></_>
        <_>
          <internalNodes>
            0 -1 349 1.1281041428446770e-02</internalNodes>
          <leafValues>
            -9.9460199475288391e-02 5.0707495212554932e-01</leafValues></_>
        <_>
          <internalNodes>
            0 -1 288 1.6281089046970010e-03</internalNodes>
          <leafValues>
            -1.4502091705799103e-01 2.8454640507698059e-01</leafValues></_>
        <_>
          <internalNodes>
            0 -1 428 -3.3297720365226269e-03</internalNodes>
          <leafValues>
            -6.1789816617965698e-01 7.5487367808818817e-02</leafValues></_>
        <_>
          <internalNodes>
            0 -1 289 1.7152981599792838e-03</internalNodes>
          <leafValues>
            -1.4660230278968811e-01 3.4697568416595459e-01</leafValues></_>
        <_>
          <internalNodes>
            0 -1 189 1.5540706925094128e-02</internalNodes>
          <leafValues>
            -1.1990354210138321e-01 4.5685538649559021e-01</leafValues></_>
        <_>
          <internalNodes>
            0 -1 275 -1.5543710906058550e-03</internalNodes>
          <leafValues>
            -3.7649857997894287e-01 1.2809969484806061e-01</leafValues></_>
        <_>
          <internalNodes>
            0 -1 145 -1.9570026779547334e-04</internalNodes>
          <leafValues>
            2.2517335414886475e-01 -2.0907106995582581e-01</leafValues></_></weakClassifiers></_>
    <!-- stage 7 -->
    <_>
      <maxWeakCount>25</maxWeakCount>
      <stageThreshold>-1.1018738746643066e+00</stageThreshold>
      <weakClassifiers>
        <_>
          <internalNodes>
            0 -1 159 -5.1271845586597919e-03</internalNodes>
          <leafValues>
            2.8125000000000000e-01 -4.2264151573181152e-01</leafValues></_>
        <_>
          <internalNodes>
            0 -1 110 1.8146183341741562e-02</internalNodes>
          <leafValues>
            -1.6624739766120911e-01 3.3257067203521729e-01</leafValues></_>
        <_>
          <internalNodes>
            0 -1 130 1.1728005483746529e-02</internalNodes>
          <leafValues>
            -7.3277942836284637e-02 7.2538864612579346e-01</leafValues></_>
        <_>
          <internalNodes>
            0 -1 54 -1.8830909393727779e-03</internalNodes>
          <leafValues>
            -4.8748260736465454e-01 1.1514918506145477e-01</leafValues></_>
        <_>
          <internalNodes>
            0 -1 96 -1.1830295261461288e-04</internalNodes>
          <leafValues>
            2.9753345251083374e-01 -1.6385199129581451e-01</leafValues></_>
        <_>
          <internalNodes>
            0 -1 249 -1.2227038387209177e-03</internalNodes>
          <leafValues>
            -6.1164331436157227e-01 7.3952764272689819e-02</leafValues></_>
        <_>
          <internalNodes>
            0 -1 298 -5.8348793536424637e-03</internalNodes>
          <leafValues>
            4.3356168270111084e-01 -1.1498510837554932e-01</leafValues></_>
        <_>
          <internalNodes>
            0 -1 348 -2.1394875366240740e-03</internalNodes>
          <leafValues>
            3.3850538730621338e-01 -1.1756343394517899e-01</leafValues></_>
        <_>
          <internalNodes>
            0 -1 516 -1.0781064629554749e-03</internalNodes>
          <leafValues>
            -7.9556751251220703e-01 5.4713457822799683e-02</leafValues></_>
        <_>
          <internalNodes>
            0 -1 74 3.1635284423828125e-02</internalNodes>
          <leafValues>
            -1.2758062779903412e-01 3.4849172830581665e-01</leafValues></_>
        <_>
          <internalNodes>
            0 -1 323 -9.1581366723403335e-04</internalNodes>
          <leafValues>
            3.1993868947029114e-01 -1.4894947409629822e-01</leafValues></_>
        <_>
          <internalNodes>
            0 -1 412 1.0329693555831909e-02</internalNodes>
          <leafValues>
            7.3094904422760010e-02 -7.5488322973251343e-01</leafValues></_>
        <_>
          <internalNodes>
            0 -1 173 1.2821982381865382e-03</internalNodes>
          <leafValues>
            -2.0760734379291534e-01 2.2352798283100128e-01</leafValues></_>
        <_>
          <internalNodes>
            0 -1 197 3.6349711008369923e-03</internalNodes>
          <leafValues>
            9.4344191253185272e-02 -4.6564409136772156e-01</leafValues></_>
        <_>
          <internalNodes>
            0 -1 100 8.5260327905416489e-03</internalNodes>
          <leafValues>
            -1.0300186276435852e-01 4.5923635363578796e-01</leafValues></_>
        <_>
          <internalNodes>
            0 -1 308 1.1125476157758385e-04</internalNodes>
          <leafValues>
            -1.4422547817230225e-01 2.8530520200729370e-01</leafValues></_>
        <_>
          <internalNodes>
            0 -1 492 -2.6197783881798387e-04</internalNodes>
          <leafValues>
            1.8367652595043182e-01 -2.1599073708057404e-01</leafValues></_>
        <_>
          <internalNodes>
            0 -1 510 4.5175507664680481e-02</internalNodes>
          <leafValues>
            1.2313201278448105e-01 -3.6285603046417236e-01</leafValues></_>
        <_>
          <internalNodes>
            0 -1 463 1.7196595435962081e-03</internalNodes>
          <leafValues>
            -1.6785469651222229e-01 2.6044094562530518e-01</leafValues></_>
        <_>
          <internalNodes>
            0 -1 186 -9.9016167223453522e-03</internalNodes>
          <leafValues>
            8.8756096363067627e-01 -4.4189475476741791e-02</leafValues></_>
        <_>
          <internalNodes>
            0 -1 478 -1.4025971759110689e-03</internalNodes>
          <leafValues>
            -8.3054453134536743e-01 6.0400821268558502e-02</leafValues></_>
        <_>
          <internalNodes>
            0 -1 183 -1.4553718268871307e-02</internalNodes>
          <leafValues>
            5.9160548448562622e-01 -8.5276730358600616e-02</leafValues></_>
        <_>
          <internalNodes>
            0 -1 14 3.4565083682537079e-02</internalNodes>
          <leafValues>
            -3.8199119269847870e-02 9.2656540870666504e-01</leafValues></_>
        <_>
          <internalNodes>
            0 -1 462 -1.9793091341853142e-03</internalNodes>
          <leafValues>
            3.1201219558715820e-01 -1.3002428412437439e-01</leafValues></_>
        <_>
          <internalNodes>
            0 -1 325 1.0780967772006989e-02</internalNodes>
          <leafValues>
            -5.4391894489526749e-02 8.0884623527526855e-01</leafValues></_></weakClassifiers></_>
    <!-- stage 8 -->
    <_>
      <maxWeakCount>29</maxWeakCount>
      <stageThreshold>-1.1869560480117798e+00</stageThreshold>
      <weakClassifiers>
        <_>
          <internalNodes>
            0 -1 118 -1.2040693312883377e-02</internalNodes>
          <leafValues>
            1.1111111193895340e-01 -4.3343344330787659e-01</leafValues></_>
        <_>
          <internalNodes>
            0 -1 507 -1.1174725368618965e-03</internalNodes>
          <leafValues>
            -7.1024543046951294e-01 3.8729414343833923e-02</leafValues></_>
        <_>
          <internalNodes>
            0 -1 33 -1.1134311556816101e-02</internalNodes>
          <leafValues>
            5.3278464078903198e-01 -6.7900240421295166e-02</leafValues></_>
        <_>
          <internalNodes>
            0 -1 95 2.1355719864368439e-01</internalNodes>
          <leafValues>
            6.5035969018936157e-02 -6.7052441835403442e-01</leafValues></_>
        <_>
          <internalNodes>
            0 -1 105 9.2018907889723778e-03</internalNodes>
          <leafValues>
            -1.3345198333263397e-01 3.5104581713676453e-01</leafValues></_>
        <_>
          <internalNodes>
            0 -1 400 -1.7289106035605073e-03</internalNodes>
          <leafValues>
            -4.5877310633659363e-01 7.1047984063625336e-02</leafValues></_>
        <_>
          <internalNodes>
            0 -1 387 1.3983867131173611e-02</internalNodes>
          <leafValues>
            -8.5749991238117218e-02 5.2010697126388550e-01</leafValues></_>
        <_>
          <internalNodes>
            0 -1 239 -9.4081842689774930e-05</internalNodes>
          <leafValues>
            1.9286073744297028e-01 -2.2300197184085846e-01</leafValues></_>
        <_>
          <internalNodes>
            0 -1 155 -1.3635042123496532e-02</internalNodes>
          <leafValues>
            6.1847949028015137e-01 -4.5849591493606567e-02</leafValues></_>
        <_>
          <internalNodes>
            0 -1 465 2.4492866941727698e-04</internalNodes>
          <leafValues>
            1.2847292423248291e-01 -3.2852917909622192e-01</leafValues></_>
        <_>
          <internalNodes>
            0 -1 341 -1.3715663226321340e-04</internalNodes>
          <leafValues>
            2.3495332896709442e-01 -1.8221417069435120e-01</leafValues></_>
        <_>
          <internalNodes>
            0 -1 534 -1.7789381090551615e-03</internalNodes>
          <leafValues>
            -7.6345837116241455e-01 6.1423715204000473e-02</leafValues></_>
        <_>
          <internalNodes>
            0 -1 135 -5.6087672710418701e-03</internalNodes>
          <leafValues>
            3.3869412541389465e-01 -1.2626801431179047e-01</leafValues></_>
        <_>
          <internalNodes>
            0 -1 210 -5.1949154585599899e-03</internalNodes>
          <leafValues>
            2.7439475059509277e-01 -1.4998777210712433e-01</leafValues></_>
        <_>
          <internalNodes>
            0 -1 357 -8.2516099791973829e-04</internalNodes>
          <leafValues>
            2.8907749056816101e-01 -1.5330186486244202e-01</leafValues></_>
        <_>
          <internalNodes>
            0 -1 361 -7.6623307541012764e-04</internalNodes>
          <leafValues>
            -5.7933241128921509e-01 8.1442490220069885e-02</leafValues></_>
        <_>
          <internalNodes>
            0 -1 250 -3.4380257129669189e-03</internalNodes>
          <leafValues>
            3.4932199120521545e-01 -1.3431583344936371e-01</leafValues></_>
        <_>
          <internalNodes>
            0 -1 444 -1.7408764688298106e-03</internalNodes>
          <leafValues>
            3.5408374667167664e-01 -1.4308407902717590e-01</leafValues></_>
        <_>
          <internalNodes>
            0 -1 467 3.2183667644858360e-03</internalNodes>
          <leafValues>
            6.1891000717878342e-02 -6.8558943271636963e-01</leafValues></_>
        <_>
          <internalNodes>
            0 -1 153 -1.5653461217880249e-02</internalNodes>
          <leafValues>
            3.8551953434944153e-01 -1.2299960851669312e-01</leafValues></_>
        <_>
          <internalNodes>
            0 -1 539 1.0978156933560967e-03</internalNodes>
          <leafValues>
            6.9847710430622101e-02 -6.1279177665710449e-01</leafValues></_>
        <_>
          <internalNodes>
            0 -1 460 -1.1920118413399905e-04</internalNodes>
          <leafValues>
            2.0569548010826111e-01 -2.1106773614883423e-01</leafValues></_>
        <_>
          <internalNodes>
            0 -1 192 7.4945706874132156e-03</internalNodes>
          <leafValues>
            -1.0970914363861084e-01 3.6309498548507690e-01</leafValues></_>
        <_>
          <internalNodes>
            0 -1 425 -1.9427647348493338e-03</internalNodes>
          <leafValues>
            2.7786341309547424e-01 -1.4353379607200623e-01</leafValues></_>
        <_>
          <internalNodes>
            0 -1 5 -1.5190437436103821e-01</internalNodes>
          <leafValues>
            6.2474185228347778e-01 -7.8599259257316589e-02</leafValues></_>
        <_>
          <internalNodes>
            0 -1 241 -3.2870881259441376e-03</internalNodes>
          <leafValues>
            -4.9147862195968628e-01 9.6538208425045013e-02</leafValues></_>
        <_>
          <internalNodes>
            0 -1 213 -2.5924585759639740e-02</internalNodes>
          <leafValues>
            2.6455777883529663e-01 -1.4164748787879944e-01</leafValues></_>
        <_>
          <internalNodes>
            0 -1 405 8.0902026966214180e-03</internalNodes>
          <leafValues>
            -8.1390157341957092e-02 5.5837565660476685e-01</leafValues></_>
        <_>
          <internalNodes>
            0 -1 50 -1.7022492364048958e-02</internalNodes>
          <leafValues>
            -4.0398740768432617e-01 1.2093231081962585e-01</leafValues></_></weakClassifiers></_>
    <!-- stage 9 -->
    <_>
      <maxWeakCount>29</maxWeakCount>
      <stageThreshold>-1.1165727376937866e+00</stageThreshold>
      <weakClassifiers>
        <_>
          <internalNodes>
            0 -1 296 -7.0122014731168747e-03</internalNodes>
          <leafValues>
            4.3750000000000000e-01 -4.1575092077255249e-01</leafValues></_>
        <_>
          <internalNodes>
            0 -1 315 -1.2643520021811128e-03</internalNodes>
          <leafValues>
            3.2834991812705994e-01 -1.9845539331436157e-01</leafValues></_>
        <_>
          <internalNodes>
            0 -1 366 4.7597987577319145e-03</internalNodes>
          <leafValues>
            9.1092891991138458e-02 -8.5666447877883911e-01</leafValues></_>
        <_>
          <internalNodes>
            0 -1 165 -8.3062592893838882e-03</internalNodes>
          <leafValues>
            4.5735689997673035e-01 -1.0167694836854935e-01</leafValues></_>
        <_>
          <internalNodes>
            0 -1 526 -1.4990000054240227e-03</internalNodes>
          <leafValues>
            -5.0199586153030396e-01 7.9012557864189148e-02</leafValues></_>
        <_>
          <internalNodes>
            0 -1 211 -1.6665814816951752e-01</internalNodes>
          <leafValues>
            -3.1390386819839478e-01 1.6410562396049500e-01</leafValues></_>
        <_>
          <internalNodes>
            0 -1 472 3.7220749072730541e-03</internalNodes>
          <leafValues>
            2.4266475811600685e-02 -6.5563881397247314e-01</leafValues></_>
        <_>
          <internalNodes>
            0 -1 178 -3.6651557683944702e-01</internalNodes>
          <leafValues>
            -6.5505844354629517e-01 7.4202112853527069e-02</leafValues></_>
        <_>
          <internalNodes>
            0 -1 524 -2.1824240684509277e-03</internalNodes>
          <leafValues>
            -6.4774250984191895e-01 5.3025241941213608e-02</leafValues></_>
        <_>
          <internalNodes>
            0 -1 535 6.3528195023536682e-03</internalNodes>
          <leafValues>
            4.3331991881132126e-02 -8.5924303531646729e-01</leafValues></_>
        <_>
          <internalNodes>
            0 -1 75 -1.0580327361822128e-02</internalNodes>
          <leafValues>
            6.9860959053039551e-01 -6.2729902565479279e-02</leafValues></_>
        <_>
          <internalNodes>
            0 -1 121 -5.9767607599496841e-03</internalNodes>
          <leafValues>
            3.1060349941253662e-01 -1.0422935336828232e-01</leafValues></_>
        <_>
          <internalNodes>
            0 -1 129 1.3111063279211521e-02</internalNodes>
          <leafValues>
            -5.4992727935314178e-02 7.4723249673843384e-01</leafValues></_>
        <_>
          <internalNodes>
            0 -1 480 -2.5618711952120066e-03</internalNodes>
          <leafValues>
            -5.3367757797241211e-01 7.9581514000892639e-02</leafValues></_>
        <_>
          <internalNodes>
            0 -1 133 -8.6874330008868128e-05</internalNodes>
          <leafValues>
            2.2288021445274353e-01 -1.9282607734203339e-01</leafValues></_>
        <_>
          <internalNodes>
            0 -1 17 1.8293832545168698e-04</internalNodes>
          <leafValues>
            -1.8369534611701965e-01 1.9549596309661865e-01</leafValues></_>
        <_>
          <internalNodes>
            0 -1 459 -1.5239981003105640e-03</internalNodes>
          <leafValues>
            -4.5487982034683228e-01 8.5711799561977386e-02</leafValues></_>
        <_>
          <internalNodes>
            0 -1 111 1.4171586371958256e-02</internalNodes>
          <leafValues>
            -1.1231679469347000e-01 3.7160328030586243e-01</leafValues></_>
        <_>
          <internalNodes>
            0 -1 329 -7.7336037065833807e-05</internalNodes>
          <leafValues>
            1.7631793022155762e-01 -2.1621491014957428e-01</leafValues></_>
        <_>
          <internalNodes>
            0 -1 490 6.6540753468871117e-03</internalNodes>
          <leafValues>
            7.4167333543300629e-02 -5.0101017951965332e-01</leafValues></_>
        <_>
          <internalNodes>
            0 -1 41 -1.1185656301677227e-02</internalNodes>
          <leafValues>
            4.8578697443008423e-01 -8.7711594998836517e-02</leafValues></_>
        <_>
          <internalNodes>
            0 -1 528 4.4800486648455262e-04</internalNodes>
          <leafValues>
            1.2079972773790359e-01 -3.3932539820671082e-01</leafValues></_>
        <_>
          <internalNodes>
            0 -1 98 -3.0580011662095785e-04</internalNodes>
          <leafValues>
            2.0635768771171570e-01 -1.9899758696556091e-01</leafValues></_>
        <_>
          <internalNodes>
            0 -1 254 3.5042762756347656e-02</internalNodes>
          <leafValues>
            -5.1611136645078659e-02 8.4933060407638550e-01</leafValues></_>
        <_>
          <internalNodes>
            0 -1 545 -1.7531530465930700e-03</internalNodes>
          <leafValues>
            -6.9352507591247559e-01 6.4036950469017029e-02</leafValues></_>
        <_>
          <internalNodes>
            0 -1 28 1.7484772950410843e-02</internalNodes>
          <leafValues>
            -7.9607762396335602e-02 6.3356602191925049e-01</leafValues></_>
        <_>
          <internalNodes>
            0 -1 174 2.6322719641029835e-03</internalNodes>
          <leafValues>
            6.5845474600791931e-02 -6.4601850509643555e-01</leafValues></_>
        <_>
          <internalNodes>
            0 -1 205 4.2803725227713585e-04</internalNodes>
          <leafValues>
            -1.6949239373207092e-01 2.5087958574295044e-01</leafValues></_>
        <_>
          <internalNodes>
            0 -1 297 1.3716027751797810e-05</internalNodes>
          <leafValues>
            1.7549018561840057e-01 -2.3322965204715729e-01</leafValues></_></weakClassifiers></_>
    <!-- stage 10 -->
    <_>
      <maxWeakCount>34</maxWeakCount>
      <stageThreshold>-1.1369014978408813e+00</stageThreshold>
      <weakClassifiers>
        <_>
          <internalNodes>
            0 -1 194 2.0317750051617622e-02</internalNodes>
          <leafValues>
            -3.8380283117294312e-01 4.6153846383094788e-01</leafValues></_>
        <_>
          <internalNodes>
            0 -1 212 -2.2011522669345140e-03</internalNodes>
          <leafValues>
            -4.8140609264373779e-01 4.1946582496166229e-02</leafValues></_>
        <_>
          <internalNodes>
            0 -1 411 5.2830129861831665e-03</internalNodes>
          <leafValues>
            5.8875203132629395e-02 -8.0586659908294678e-01</leafValues></_>
        <_>
          <internalNodes>
            0 -1 372 -1.0141989914700389e-03</internalNodes>
          <leafValues>
            2.4715529382228851e-01 -1.5783578157424927e-01</leafValues></_>
        <_>
          <internalNodes>
            0 -1 458 -1.0949387797154486e-04</internalNodes>
          <leafValues>
            2.0192855596542358e-01 -1.9126665592193604e-01</leafValues></_>
        <_>
          <internalNodes>
            0 -1 546 -3.6656350130215287e-04</internalNodes>
          <leafValues>
            1.6775159537792206e-01 -2.1570056676864624e-01</leafValues></_>
        <_>
          <internalNodes>
            0 -1 187 -9.9995378404855728e-03</internalNodes>
          <leafValues>
            5.9692233800888062e-01 -5.3584948182106018e-02</leafValues></_>
        <_>
          <internalNodes>
            0 -1 260 -1.4468336012214422e-03</internalNodes>
          <leafValues>
            2.3320361971855164e-01 -1.5733256936073303e-01</leafValues></_>
        <_>
          <internalNodes>
            0 -1 356 9.5463602337986231e-04</internalNodes>
          <leafValues>
            4.5370250940322876e-02 -6.9964092969894409e-01</leafValues></_>
        <_>
          <internalNodes>
            0 -1 378 1.1820454383268952e-03</internalNodes>
          <leafValues>
            5.8665473014116287e-02 -6.4256322383880615e-01</leafValues></_>
        <_>
          <internalNodes>
            0 -1 55 -1.3054563896730542e-04</internalNodes>
          <leafValues>
            2.0695288479328156e-01 -1.8117237091064453e-01</leafValues></_>
        <_>
          <internalNodes>
            0 -1 170 -3.4766420722007751e-03</internalNodes>
          <leafValues>
            -4.1461926698684692e-01 7.5841896235942841e-02</leafValues></_>
        <_>
          <internalNodes>
            0 -1 352 1.7313249409198761e-03</internalNodes>
          <leafValues>
            -1.0184867680072784e-01 3.6593580245971680e-01</leafValues></_>
        <_>
          <internalNodes>
            0 -1 423 -8.9701399207115173e-02</internalNodes>
          <leafValues>
            -6.4301866292953491e-01 5.8186464011669159e-02</leafValues></_>
        <_>
          <internalNodes>
            0 -1 49 -3.7764851003885269e-03</internalNodes>
          <leafValues>
            -3.6021324992179871e-01 8.9395441114902496e-02</leafValues></_>
        <_>
          <internalNodes>
            0 -1 166 -2.6484890840947628e-03</internalNodes>
          <leafValues>
            1.9046600162982941e-01 -2.0640869438648224e-01</leafValues></_>
        <_>
          <internalNodes>
            0 -1 88 -1.9729291088879108e-03</internalNodes>
          <leafValues>
            2.5431546568870544e-01 -1.3844089210033417e-01</leafValues></_>
        <_>
          <internalNodes>
            0 -1 59 2.9068373143672943e-02</internalNodes>
          <leafValues>
            4.8388216644525528e-02 -7.2074639797210693e-01</leafValues></_>
        <_>
          <internalNodes>
            0 -1 334 -1.3135167956352234e-01</internalNodes>
          <leafValues>
            -6.3060975074768066e-01 4.6305909752845764e-02</leafValues></_>
        <_>
          <internalNodes>
            0 -1 141 1.1240917444229126e-01</internalNodes>
          <leafValues>
            6.2664113938808441e-02 -5.2714914083480835e-01</leafValues></_>
        <_>
          <internalNodes>
            0 -1 548 -7.9200006439350545e-05</internalNodes>
          <leafValues>
            2.0417310297489166e-01 -1.8285794556140900e-01</leafValues></_>
        <_>
          <internalNodes>
            0 -1 181 -1.6674101352691650e-03</internalNodes>
          <leafValues>
            2.4057638645172119e-01 -1.5726767480373383e-01</leafValues></_>
        <_>
          <internalNodes>
            0 -1 333 1.5278287464752793e-03</internalNodes>
          <leafValues>
            8.6052715778350830e-02 -4.5737364888191223e-01</leafValues></_>
        <_>
          <internalNodes>
            0 -1 245 -1.0699662379920483e-02</internalNodes>
          <leafValues>
            -5.6206697225570679e-01 6.3530564308166504e-02</leafValues></_>
        <_>
          <internalNodes>
            0 -1 284 -3.0716490000486374e-03</internalNodes>
          <leafValues>
            2.9384616017341614e-01 -1.5162742137908936e-01</leafValues></_>
        <_>
          <internalNodes>
            0 -1 368 -2.2216998040676117e-03</internalNodes>
          <leafValues>
            2.8391575813293457e-01 -1.3430362939834595e-01</leafValues></_>
        <_>
          <internalNodes>
            0 -1 47 8.9841702720150352e-04</internalNodes>
          <leafValues>
            5.9221915900707245e-02 -5.9679913520812988e-01</leafValues></_>
        <_>
          <internalNodes>
            0 -1 266 4.5139469206333160e-02</internalNodes>
          <leafValues>
            -4.7735631465911865e-02 8.1881082057952881e-01</leafValues></_>
        <_>
          <internalNodes>
            0 -1 46 7.6622847700491548e-04</internalNodes>
          <leafValues>
            9.8726026713848114e-02 -4.1482278704643250e-01</leafValues></_>
        <_>
          <internalNodes>
            0 -1 328 -1.6213536728173494e-03</internalNodes>
          <leafValues>
            3.4360131621360779e-01 -1.2613013386726379e-01</leafValues></_>
        <_>
          <internalNodes>
            0 -1 461 1.5105315833352506e-04</internalNodes>
          <leafValues>
            -1.4008031785488129e-01 2.8466635942459106e-01</leafValues></_>
        <_>
          <internalNodes>
            0 -1 398 -1.7672877293080091e-03</internalNodes>
          <leafValues>
            -6.7000710964202881e-01 5.9060979634523392e-02</leafValues></_>
        <_>
          <internalNodes>
            0 -1 85 -1.0165664553642273e-01</internalNodes>
          <leafValues>
            -5.4117244482040405e-01 6.6351659595966339e-02</leafValues></_>
        <_>
          <internalNodes>
            0 -1 477 -5.1301140047144145e-05</internalNodes>
          <leafValues>
            1.4920970797538757e-01 -2.4489285051822662e-01</leafValues></_></weakClassifiers></_>
    <!-- stage 11 -->
    <_>
      <maxWeakCount>30</maxWeakCount>
      <stageThreshold>-1.0576074123382568e+00</stageThreshold>
      <weakClassifiers>
        <_>
          <internalNodes>
            0 -1 295 -1.0982799343764782e-02</internalNodes>
          <leafValues>
            3.1092438101768494e-01 -4.2001870274543762e-01</leafValues></_>
        <_>
          <internalNodes>
            0 -1 261 -1.1461374815553427e-03</internalNodes>
          <leafValues>
            3.0741775035858154e-01 -1.5980398654937744e-01</leafValues></_>
        <_>
          <internalNodes>
            0 -1 157 -1.3945017009973526e-02</internalNodes>
          <leafValues>
            6.7503559589385986e-01 -7.3036111891269684e-02</leafValues></_>
        <_>
          <internalNodes>
            0 -1 509 5.7764023542404175e-02</internalNodes>
          <leafValues>
            6.6648289561271667e-02 -7.6646620035171509e-01</leafValues></_>
        <_>
          <internalNodes>
            0 -1 403 3.9567295461893082e-03</internalNodes>
          <leafValues>
            -1.4404514431953430e-01 2.7136579155921936e-01</leafValues></_>
        <_>
          <internalNodes>
            0 -1 394 3.1774877570569515e-03</internalNodes>
          <leafValues>
            -1.1905759572982788e-01 4.6362072229385376e-01</leafValues></_>
        <_>
          <internalNodes>
            0 -1 154 2.5356569886207581e-01</internalNodes>
          <leafValues>
            5.7848993688821793e-02 -6.7782890796661377e-01</leafValues></_>
        <_>
          <internalNodes>
            0 -1 8 5.1293313503265381e-02</internalNodes>
          <leafValues>
            -1.2204481661319733e-01 3.1725531816482544e-01</leafValues></_>
        <_>
          <internalNodes>
            0 -1 146 -3.3750449074432254e-04</internalNodes>
          <leafValues>
            2.0775718986988068e-01 -2.1611811220645905e-01</leafValues></_>
        <_>
          <internalNodes>
            0 -1 114 -7.1107596158981323e-03</internalNodes>
          <leafValues>
            6.5988159179687500e-01 -6.9651089608669281e-02</leafValues></_>
        <_>
          <internalNodes>
            0 -1 56 -1.1858204379677773e-02</internalNodes>
          <leafValues>
            2.6536411046981812e-01 -1.3673940300941467e-01</leafValues></_>
        <_>
          <internalNodes>
            0 -1 305 7.4758487753570080e-03</internalNodes>
          <leafValues>
            -9.1764330863952637e-03 8.7310546636581421e-01</leafValues></_>
        <_>
          <internalNodes>
            0 -1 429 -8.2122918684035540e-04</internalNodes>
          <leafValues>
            -3.0360856652259827e-01 1.0858833044767380e-01</leafValues></_>
        <_>
          <internalNodes>
            0 -1 345 -1.6673323698341846e-03</internalNodes>
          <leafValues>
            3.2288509607315063e-01 -1.2241918593645096e-01</leafValues></_>
        <_>
          <internalNodes>
            0 -1 505 -1.7173090018332005e-03</internalNodes>
          <leafValues>
            1.5807497501373291e-01 -2.2859968245029449e-01</leafValues></_>
        <_>
          <internalNodes>
            0 -1 256 1.9785100594162941e-03</internalNodes>
          <leafValues>
            -1.4151439070701599e-01 2.5661766529083252e-01</leafValues></_>
        <_>
          <internalNodes>
            0 -1 407 -1.4261298347264528e-03</internalNodes>
          <leafValues>
            -3.5755500197410583e-01 1.0389775782823563e-01</leafValues></_>
        <_>
          <internalNodes>
            0 -1 442 2.8558659832924604e-03</internalNodes>
          <leafValues>
            -9.9687516689300537e-02 4.0903127193450928e-01</leafValues></_>
        <_>
          <internalNodes>
            0 -1 504 2.0505804568529129e-03</internalNodes>
          <leafValues>
            9.0976588428020477e-02 -4.4362246990203857e-01</leafValues></_>
        <_>
          <internalNodes>
            0 -1 78 -2.0927174482494593e-03</internalNodes>
          <leafValues>
            2.2567014396190643e-01 -1.5041849017143250e-01</leafValues></_>
        <_>
          <internalNodes>
            0 -1 82 -1.3171721948310733e-03</internalNodes>
          <leafValues>
            2.7152487635612488e-01 -1.3381437957286835e-01</leafValues></_>
        <_>
          <internalNodes>
            0 -1 109 -1.1037541844416410e-04</internalNodes>
          <leafValues>
            2.0499236881732941e-01 -1.6093158721923828e-01</leafValues></_>
        <_>
          <internalNodes>
            0 -1 547 1.1578848352655768e-03</internalNodes>
          <leafValues>
            4.9830153584480286e-02 -6.3233542442321777e-01</leafValues></_>
        <_>
          <internalNodes>
            0 -1 401 -1.3485001400113106e-03</internalNodes>
          <leafValues>
            2.2651056945323944e-01 -1.5695233643054962e-01</leafValues></_>
        <_>
          <internalNodes>
            0 -1 384 -1.6396938590332866e-03</internalNodes>
          <leafValues>
            2.2272330522537231e-01 -1.5293918550014496e-01</leafValues></_>
        <_>
          <internalNodes>
            0 -1 437 2.4571102112531662e-03</internalNodes>
          <leafValues>
            -1.3735091686248779e-01 2.6463106274604797e-01</leafValues></_>
        <_>
          <internalNodes>
            0 -1 11 2.5496926903724670e-01</internalNodes>
          <leafValues>
            3.4780941903591156e-02 -1.</leafValues></_>
        <_>
          <internalNodes>
            0 -1 253 -3.6675986647605896e-01</internalNodes>
          <leafValues>
            -8.2142084836959839e-01 3.0001621693372726e-02</leafValues></_>
        <_>
          <internalNodes>
            0 -1 343 -5.2725132554769516e-02</internalNodes>
          <leafValues>
            3.9146071672439575e-01 -9.8850347101688385e-02</leafValues></_>
        <_>
          <internalNodes>
            0 -1 76 1.7035808414220810e-02</internalNodes>
          <leafValues>
            -1.0048304498195648e-01 3.2731589674949646e-01</leafValues></_></weakClassifiers></_>
    <!-- stage 12 -->
    <_>
      <maxWeakCount>33</maxWeakCount>
      <stageThreshold>-1.1041805744171143e+00</stageThreshold>
      <weakClassifiers>
        <_>
          <internalNodes>
            0 -1 87 2.1297678351402283e-02</internalNodes>
          <leafValues>
            -3.7049743533134460e-01 9.0909093618392944e-01</leafValues></_>
        <_>
          <internalNodes>
            0 -1 392 -2.0153098739683628e-03</internalNodes>
          <leafValues>
            3.3411380648612976e-01 -1.1621526628732681e-01</leafValues></_>
        <_>
          <internalNodes>
            0 -1 162 -4.4225258752703667e-03</internalNodes>
          <leafValues>
            2.3158797621726990e-01 -1.3517048954963684e-01</leafValues></_>
        <_>
          <internalNodes>
            0 -1 152 -8.5336770862340927e-03</internalNodes>
          <leafValues>
            5.6891000270843506e-01 -5.8405667543411255e-02</leafValues></_>
        <_>
          <internalNodes>
            0 -1 436 -9.7082491265609860e-04</internalNodes>
          <leafValues>
            -4.8642486333847046e-01 7.0769988000392914e-02</leafValues></_>
        <_>
          <internalNodes>
            0 -1 391 -1.5245932154357433e-02</internalNodes>
          <leafValues>
            5.3572136163711548e-01 -3.6469988524913788e-02</leafValues></_>
        <_>
          <internalNodes>
            0 -1 203 -2.3864406102802604e-04</internalNodes>
          <leafValues>
            1.6520230472087860e-01 -1.8657368421554565e-01</leafValues></_>
        <_>
          <internalNodes>
            0 -1 511 2.2367252968251705e-03</internalNodes>
          <leafValues>
            3.2997015863656998e-02 -7.9173153638839722e-01</leafValues></_>
        <_>
          <internalNodes>
            0 -1 390 -1.6714993398636580e-03</internalNodes>
          <leafValues>
            3.2378715276718140e-01 -1.0287660360336304e-01</leafValues></_>
        <_>
          <internalNodes>
            0 -1 499 -2.8872225084342062e-04</internalNodes>
          <leafValues>
            1.5489892661571503e-01 -2.0315165817737579e-01</leafValues></_>
        <_>
          <internalNodes>
            0 -1 380 1.9504344090819359e-03</internalNodes>
          <leafValues>
            6.2077946960926056e-02 -6.0756832361221313e-01</leafValues></_>
        <_>
          <internalNodes>
            0 -1 136 5.1729768514633179e-02</internalNodes>
          <leafValues>
            -1.1102044582366943e-01 3.5428851842880249e-01</leafValues></_>
        <_>
          <internalNodes>
            0 -1 314 2.7927756309509277e-03</internalNodes>
          <leafValues>
            -5.8099295943975449e-02 5.0987029075622559e-01</leafValues></_>
        <_>
          <internalNodes>
            0 -1 551 -1.3681764248758554e-03</internalNodes>
          <leafValues>
            -7.3485577106475830e-01 4.3514292687177658e-02</leafValues></_>
        <_>
          <internalNodes>
            0 -1 470 9.9061476066708565e-04</internalNodes>
          <leafValues>
            9.4826042652130127e-02 -3.3503970503807068e-01</leafValues></_>
        <_>
          <internalNodes>
            0 -1 543 -9.5388626505155116e-05</internalNodes>
          <leafValues>
            1.9521892070770264e-01 -1.6429093480110168e-01</leafValues></_>
        <_>
          <internalNodes>
            0 -1 237 1.3501209206879139e-02</internalNodes>
          <leafValues>
            -3.5637192428112030e-02 8.3162069320678711e-01</leafValues></_>
        <_>
          <internalNodes>
            0 -1 124 5.0251491367816925e-02</internalNodes>
          <leafValues>
            5.6271798908710480e-02 -6.6771310567855835e-01</leafValues></_>
        <_>
          <internalNodes>
            0 -1 97 3.4308634349144995e-04</internalNodes>
          <leafValues>
            -1.7374552786350250e-01 1.8804429471492767e-01</leafValues></_>
        <_>
          <internalNodes>
            0 -1 6 2.2103430703282356e-02</internalNodes>
          <leafValues>
            6.9933503866195679e-02 -5.9312343597412109e-01</leafValues></_>
        <_>
          <internalNodes>
            0 -1 282 1.0529940482228994e-04</internalNodes>
          <leafValues>
            -1.6612045466899872e-01 1.9861930608749390e-01</leafValues></_>
        <_>
          <internalNodes>
            0 -1 22 3.5644639283418655e-03</internalNodes>
          <leafValues>
            9.9529519677162170e-02 -3.2684230804443359e-01</leafValues></_>
        <_>
          <internalNodes>
            0 -1 182 -7.1688508614897728e-03</internalNodes>
          <leafValues>
            3.9878171682357788e-01 -8.4410347044467926e-02</leafValues></_>
        <_>
          <internalNodes>
            0 -1 27 -2.0192727446556091e-02</internalNodes>
          <leafValues>
            7.2183889150619507e-01 -4.3952170759439468e-02</leafValues></_>
        <_>
          <internalNodes>
            0 -1 52 -4.8876233631744981e-04</internalNodes>
          <leafValues>
            -2.7473402023315430e-01 1.3062253594398499e-01</leafValues></_>
        <_>
          <internalNodes>
            0 -1 313 -7.5825443491339684e-04</internalNodes>
          <leafValues>
            2.3079204559326172e-01 -1.5567167103290558e-01</leafValues></_>
        <_>
          <internalNodes>
            0 -1 44 1.1102681979537010e-02</internalNodes>
          <leafValues>
            -5.5940173566341400e-02 6.0921496152877808e-01</leafValues></_>
        <_>
          <internalNodes>
            0 -1 443 -3.1324315932579339e-04</internalNodes>
          <leafValues>
            2.3395325243473053e-01 -1.3847935199737549e-01</leafValues></_>
        <_>
          <internalNodes>
            0 -1 206 -8.2926955074071884e-03</internalNodes>
          <leafValues>
            3.7951508164405823e-01 -1.0287766903638840e-01</leafValues></_>
        <_>
          <internalNodes>
            0 -1 45 -3.2779667526483536e-03</internalNodes>
          <leafValues>
            -5.0005799531936646e-01 7.2467796504497528e-02</leafValues></_>
        <_>
          <internalNodes>
            0 -1 37 9.6329189836978912e-03</internalNodes>
          <leafValues>
            -1.0536140203475952e-01 3.5183414816856384e-01</leafValues></_>
        <_>
          <internalNodes>
            0 -1 273 1.1686515063047409e-03</internalNodes>
          <leafValues>
            8.3919726312160492e-02 -4.1393736004829407e-01</leafValues></_>
        <_>
          <internalNodes>
            0 -1 373 7.3365401476621628e-03</internalNodes>
          <leafValues>
            -1.0759392380714417e-01 3.4992995858192444e-01</leafValues></_></weakClassifiers></_>
    <!-- stage 13 -->
    <_>
      <maxWeakCount>32</maxWeakCount>
      <stageThreshold>-1.0960661172866821e+00</stageThreshold>
      <weakClassifiers>
        <_>
          <internalNodes>
            0 -1 148 2.0567420870065689e-02</internalNodes>
          <leafValues>
            -4.2886596918106079e-01 1.8348623067140579e-02</leafValues></_>
        <_>
          <internalNodes>
            0 -1 495 -2.5137148331850767e-03</internalNodes>
          <leafValues>
            -6.9815057516098022e-01 2.2616118192672729e-02</leafValues></_>
        <_>
          <internalNodes>
            0 -1 515 -6.0895080678164959e-03</internalNodes>
          <leafValues>
            3.2081663608551025e-01 -9.8029695451259613e-02</leafValues></_>
        <_>
          <internalNodes>
            0 -1 542 1.1660933960229158e-03</internalNodes>
          <leafValues>
            6.9062724709510803e-02 -4.8861494660377502e-01</leafValues></_>
        <_>
          <internalNodes>
            0 -1 255 -3.0354831833392382e-03</internalNodes>
          <leafValues>
            3.0207288265228271e-01 -1.1704435199499130e-01</leafValues></_>
        <_>
          <internalNodes>
            0 -1 185 1.0204938240349293e-02</internalNodes>
          <leafValues>
            -8.0877102911472321e-02 5.9273260831832886e-01</leafValues></_>
        <_>
          <internalNodes>
            0 -1 454 -1.3108910061419010e-03</internalNodes>
          <leafValues>
            -6.9302952289581299e-01 6.2763825058937073e-02</leafValues></_>
        <_>
          <internalNodes>
            0 -1 301 3.8137277588248253e-03</internalNodes>
          <leafValues>
            -8.4582127630710602e-02 4.3826720118522644e-01</leafValues></_>
        <_>
          <internalNodes>
            0 -1 540 1.3891128764953464e-04</internalNodes>
          <leafValues>
            -1.3765829801559448e-01 2.2883760929107666e-01</leafValues></_>
        <_>
          <internalNodes>
            0 -1 208 6.8886796943843365e-03</internalNodes>
          <leafValues>
            4.2072143405675888e-02 -7.1716988086700439e-01</leafValues></_>
        <_>
          <internalNodes>
            0 -1 484 -1.7122027929872274e-03</internalNodes>
          <leafValues>
            -5.8371460437774658e-01 4.2867828160524368e-02</leafValues></_>
        <_>
          <internalNodes>
            0 -1 519 -7.2812922298908234e-03</internalNodes>
          <leafValues>
            -7.6192051172256470e-01 3.5290773957967758e-02</leafValues></_>
        <_>
          <internalNodes>
            0 -1 483 -8.8283712102565914e-05</internalNodes>
          <leafValues>
            2.2336569428443909e-01 -1.4789763092994690e-01</leafValues></_>
        <_>
          <internalNodes>
            0 -1 446 7.7449658419936895e-05</internalNodes>
          <leafValues>
            -1.4836469292640686e-01 2.1253457665443420e-01</leafValues></_>
        <_>
          <internalNodes>
            0 -1 119 6.1246259137988091e-03</internalNodes>
          <leafValues>
            -6.8931721150875092e-02 4.5287117362022400e-01</leafValues></_>
        <_>
          <internalNodes>
            0 -1 71 -3.0903299339115620e-03</internalNodes>
          <leafValues>
            2.4651548266410828e-01 -1.2645232677459717e-01</leafValues></_>
        <_>
          <internalNodes>
            0 -1 70 6.5963827073574066e-03</internalNodes>
          <leafValues>
            -9.1925419867038727e-02 3.6738064885139465e-01</leafValues></_>
        <_>
          <internalNodes>
            0 -1 399 -4.0305359289050102e-03</internalNodes>
          <leafValues>
            -2.8989034891128540e-01 1.0381357371807098e-01</leafValues></_>
        <_>
          <internalNodes>
            0 -1 374 9.6162836998701096e-03</internalNodes>
          <leafValues>
            -2.6591846719384193e-02 9.1825020313262939e-01</leafValues></_>
        <_>
          <internalNodes>
            0 -1 60 -1.0095849633216858e-02</internalNodes>
          <leafValues>
            1.7019282281398773e-01 -1.9232232868671417e-01</leafValues></_>
        <_>
          <internalNodes>
            0 -1 89 2.7879839763045311e-03</internalNodes>
          <leafValues>
            -1.3611109554767609e-01 2.6335692405700684e-01</leafValues></_>
        <_>
          <internalNodes>
            0 -1 67 -8.0674551427364349e-03</internalNodes>
          <leafValues>
            2.8740477561950684e-01 -1.3531175255775452e-01</leafValues></_>
        <_>
          <internalNodes>
            0 -1 501 -1.4178943820297718e-04</internalNodes>
          <leafValues>
            1.8070092797279358e-01 -1.9989497959613800e-01</leafValues></_>
        <_>
          <internalNodes>
            0 -1 32 4.6581821516156197e-03</internalNodes>
          <leafValues>
            -1.3254947960376740e-01 2.7108496427536011e-01</leafValues></_>
        <_>
          <internalNodes>
            0 -1 122 -7.6010115444660187e-03</internalNodes>
          <leafValues>
            5.3584545850753784e-01 -5.4809629917144775e-02</leafValues></_>
        <_>
          <internalNodes>
            0 -1 498 2.6082240510731936e-03</internalNodes>
          <leafValues>
            6.6538050770759583e-02 -5.6542485952377319e-01</leafValues></_>
        <_>
          <internalNodes>
            0 -1 335 1.4694125275127590e-04</internalNodes>
          <leafValues>
            -1.3738624751567841e-01 2.4588640034198761e-01</leafValues></_>
        <_>
          <internalNodes>
            0 -1 278 -5.1396866329014301e-03</internalNodes>
          <leafValues>
            -3.9444804191589355e-01 9.0995401144027710e-02</leafValues></_>
        <_>
          <internalNodes>
            0 -1 363 -1.6285986639559269e-03</internalNodes>
          <leafValues>
            -4.0166029334068298e-01 7.4703678488731384e-02</leafValues></_>
        <_>
          <internalNodes>
            0 -1 151 1.5232849400490522e-03</internalNodes>
          <leafValues>
            -6.0889046639204025e-02 5.4571795463562012e-01</leafValues></_>
        <_>
          <internalNodes>
            0 -1 339 7.9973821993917227e-04</internalNodes>
          <leafValues>
            -1.3257148861885071e-01 2.4540080130100250e-01</leafValues></_>
        <_>
          <internalNodes>
            0 -1 179 -4.4614467769861221e-03</internalNodes>
          <leafValues>
            3.1143322587013245e-01 -1.1446849256753922e-01</leafValues></_></weakClassifiers></_>
    <!-- stage 14 -->
    <_>
      <maxWeakCount>34</maxWeakCount>
      <stageThreshold>-1.0489271879196167e+00</stageThreshold>
      <weakClassifiers>
        <_>
          <internalNodes>
            0 -1 224 -2.6425425894558430e-03</internalNodes>
          <leafValues>
            5.0000000000000000e-01 -3.9184397459030151e-01</leafValues></_>
        <_>
          <internalNodes>
            0 -1 195 1.7707433551549911e-02</internalNodes>
          <leafValues>
            -1.0325808078050613e-01 5.4414808750152588e-01</leafValues></_>
        <_>
          <internalNodes>
            0 -1 84 -5.4482938721776009e-03</internalNodes>
          <leafValues>
            3.5249432921409607e-01 -1.0187731683254242e-01</leafValues></_>
        <_>
          <internalNodes>
            0 -1 262 -9.3013662844896317e-03</internalNodes>
          <leafValues>
            6.3704222440719604e-01 -4.7533035278320313e-02</leafValues></_>
        <_>
          <internalNodes>
            0 -1 66 -8.6845532059669495e-03</internalNodes>
          <leafValues>
            8.0407053232192993e-01 -3.5168949514627457e-02</leafValues></_>
        <_>
          <internalNodes>
            0 -1 0 -1.0674014920368791e-03</internalNodes>
          <leafValues>
            -2.5978118181228638e-01 1.2824937701225281e-01</leafValues></_>
        <_>
          <internalNodes>
            0 -1 48 -1.2214784510433674e-04</internalNodes>
          <leafValues>
            1.4302402734756470e-01 -2.0408785343170166e-01</leafValues></_>
        <_>
          <internalNodes>
            0 -1 365 7.5600296258926392e-03</internalNodes>
          <leafValues>
            -2.2940257564187050e-02 6.3561356067657471e-01</leafValues></_>
        <_>
          <internalNodes>
            0 -1 420 4.3055065907537937e-03</internalNodes>
          <leafValues>
            5.1670540124177933e-02 -5.9803533554077148e-01</leafValues></_>
        <_>
          <internalNodes>
            0 -1 441 -2.8020688332617283e-03</internalNodes>
          <leafValues>
            3.6146202683448792e-01 -7.7227853238582611e-02</leafValues></_>
        <_>
          <internalNodes>
            0 -1 360 -9.2524781823158264e-02</internalNodes>
          <leafValues>
            -4.2087262868881226e-01 7.7366419136524200e-02</leafValues></_>
        <_>
          <internalNodes>
            0 -1 451 -1.2549862265586853e-02</internalNodes>
          <leafValues>
            2.1645665168762207e-01 -1.7491172254085541e-01</leafValues></_>
        <_>
          <internalNodes>
            0 -1 338 2.4411011487245560e-02</internalNodes>
          <leafValues>
            -1.1064989864826202e-01 2.8657323122024536e-01</leafValues></_>
        <_>
          <internalNodes>
            0 -1 1 1.1324590072035789e-02</internalNodes>
          <leafValues>
            -4.3021894991397858e-02 7.5819706916809082e-01</leafValues></_>
        <_>
          <internalNodes>
            0 -1 57 -8.3547988906502724e-03</internalNodes>
          <leafValues>
            -3.1944659352302551e-01 1.2209368497133255e-01</leafValues></_>
        <_>
          <internalNodes>
            0 -1 18 6.2191493809223175e-02</internalNodes>
          <leafValues>
            -5.2486609667539597e-02 5.6436318159103394e-01</leafValues></_>
        <_>
          <internalNodes>
            0 -1 506 1.2124418281018734e-03</internalNodes>
          <leafValues>
            3.5187095403671265e-02 -9.6716862916946411e-01</leafValues></_>
        <_>
          <internalNodes>
            0 -1 367 1.6944375820457935e-03</internalNodes>
          <leafValues>
            3.2604891806840897e-02 -7.3840981721878052e-01</leafValues></_>
        <_>
          <internalNodes>
            0 -1 65 1.2899725697934628e-04</internalNodes>
          <leafValues>
            -1.6271558403968811e-01 1.9759038090705872e-01</leafValues></_>
        <_>
          <internalNodes>
            0 -1 276 -7.7595906332135201e-03</internalNodes>
          <leafValues>
            3.6379131674766541e-01 -9.3530789017677307e-02</leafValues></_>
        <_>
          <internalNodes>
            0 -1 290 2.8329116757959127e-03</internalNodes>
          <leafValues>
            -9.2070147395133972e-02 3.6052402853965759e-01</leafValues></_>
        <_>
          <internalNodes>
            0 -1 61 -4.6018380671739578e-03</internalNodes>
          <leafValues>
            -5.9130710363388062e-01 5.9533901512622833e-02</leafValues></_>
        <_>
          <internalNodes>
            0 -1 90 -2.3888546973466873e-02</internalNodes>
          <leafValues>
            3.4987649321556091e-01 -9.7056619822978973e-02</leafValues></_>
        <_>
          <internalNodes>
            0 -1 202 -2.0674951374530792e-03</internalNodes>
          <leafValues>
            -3.6134469509124756e-01 1.0259786248207092e-01</leafValues></_>
        <_>
          <internalNodes>
            0 -1 236 -1.1417053174227476e-03</internalNodes>
          <leafValues>
            -3.1165355443954468e-01 9.9437676370143890e-02</leafValues></_>
        <_>
          <internalNodes>
            0 -1 15 -3.1573200225830078e-01</internalNodes>
          <leafValues>
            -7.9022252559661865e-01 4.0965683758258820e-02</leafValues></_>
        <_>
          <internalNodes>
            0 -1 291 -5.7734776288270950e-02</internalNodes>
          <leafValues>
            -4.3066504597663879e-01 7.1846939623355865e-02</leafValues></_>
        <_>
          <internalNodes>
            0 -1 227 -3.9924345910549164e-03</internalNodes>
          <leafValues>
            3.7763336300849915e-01 -1.0399214923381805e-01</leafValues></_>
        <_>
          <internalNodes>
            0 -1 3 9.9234411027282476e-04</internalNodes>
          <leafValues>
            -1.4054740965366364e-01 2.2238764166831970e-01</leafValues></_>
        <_>
          <internalNodes>
            0 -1 350 1.3107361737638712e-03</internalNodes>
          <leafValues>
            1.2425513565540314e-01 -2.4986240267753601e-01</leafValues></_>
        <_>
          <internalNodes>
            0 -1 217 -9.4912108033895493e-04</internalNodes>
          <leafValues>
            2.3434601724147797e-01 -1.4583703875541687e-01</leafValues></_>
        <_>
          <internalNodes>
            0 -1 209 4.9002077430486679e-03</internalNodes>
          <leafValues>
            -1.1331815272569656e-01 4.0851277112960815e-01</leafValues></_>
        <_>
          <internalNodes>
            0 -1 68 5.5204235017299652e-02</internalNodes>
          <leafValues>
            4.9250613898038864e-02 -7.3396700620651245e-01</leafValues></_>
        <_>
          <internalNodes>
            0 -1 520 6.8946974352002144e-04</internalNodes>
          <leafValues>
            -1.1009479314088821e-01 3.3858489990234375e-01</leafValues></_></weakClassifiers></_>
    <!-- stage 15 -->
    <_>
      <maxWeakCount>38</maxWeakCount>
      <stageThreshold>-9.4438803195953369e-01</stageThreshold>
      <weakClassifiers>
        <_>
          <internalNodes>
            0 -1 302 -8.5908342152833939e-03</internalNodes>
          <leafValues>
            1.3600000739097595e-01 -4.0357479453086853e-01</leafValues></_>
        <_>
          <internalNodes>
            0 -1 497 1.7842689994722605e-03</internalNodes>
          <leafValues>
            3.6531601101160049e-02 -5.4061210155487061e-01</leafValues></_>
        <_>
          <internalNodes>
            0 -1 497 1.7719944007694721e-03</internalNodes>
          <leafValues>
            -1.4501072000712156e-03 1.</leafValues></_>
        <_>
          <internalNodes>
            0 -1 497 1.7454728949815035e-03</internalNodes>
          <leafValues>
            2.1127576474100351e-03 -8.2319140434265137e-01</leafValues></_>
        <_>
          <internalNodes>
            0 -1 320 -2.6009706780314445e-03</internalNodes>
          <leafValues>
            5.2222234010696411e-01 -3.2418753951787949e-02</leafValues></_>
        <_>
          <internalNodes>
            0 -1 4 -1.2806439399719238e-01</internalNodes>
          <leafValues>
            4.7116813063621521e-01 -7.1304343640804291e-02</leafValues></_>
        <_>
          <internalNodes>
            0 -1 263 -2.7615942526608706e-03</internalNodes>
          <leafValues>
            2.3467467725276947e-01 -1.3206976652145386e-01</leafValues></_>
        <_>
          <internalNodes>
            0 -1 531 7.6456340029835701e-03</internalNodes>
          <leafValues>
            5.6282136589288712e-02 -6.1043536663055420e-01</leafValues></_>
        <_>
          <internalNodes>
            0 -1 219 -8.2394219934940338e-03</internalNodes>
          <leafValues>
            4.0409553050994873e-01 -8.6640141904354095e-02</leafValues></_>
        <_>
          <internalNodes>
            0 -1 433 -6.2930390413384885e-05</internalNodes>
          <leafValues>
            1.2991242110729218e-01 -2.2433128952980042e-01</leafValues></_>
        <_>
          <internalNodes>
            0 -1 550 2.7602869085967541e-03</internalNodes>
          <leafValues>
            4.9379222095012665e-02 -6.2219649553298950e-01</leafValues></_>
        <_>
          <internalNodes>
            0 -1 62 -1.0667007882148027e-04</internalNodes>
          <leafValues>
            1.5533651411533356e-01 -1.7756958305835724e-01</leafValues></_>
        <_>
          <internalNodes>
            0 -1 416 -1.4328424003906548e-04</internalNodes>
          <leafValues>
            1.9799005985260010e-01 -1.4676743745803833e-01</leafValues></_>
        <_>
          <internalNodes>
            0 -1 336 1.5936188865453005e-03</internalNodes>
          <leafValues>
            1.0786068439483643e-01 -3.4531140327453613e-01</leafValues></_>
        <_>
          <internalNodes>
            0 -1 77 -2.6804725639522076e-03</internalNodes>
          <leafValues>
            2.9624146223068237e-01 -1.1289586871862411e-01</leafValues></_>
        <_>
          <internalNodes>
            0 -1 491 8.1912567839026451e-04</internalNodes>
          <leafValues>
            5.1853660494089127e-02 -6.1938035488128662e-01</leafValues></_>
        <_>
          <internalNodes>
            0 -1 327 -4.5525302994064987e-04</internalNodes>
          <leafValues>
            1.4329373836517334e-01 -2.0882585644721985e-01</leafValues></_>
        <_>
          <internalNodes>
            0 -1 264 1.1191584635525942e-03</internalNodes>
          <leafValues>
            -7.3903739452362061e-02 4.4474342465400696e-01</leafValues></_>
        <_>
          <internalNodes>
            0 -1 312 -4.5268330723047256e-03</internalNodes>
          <leafValues>
            3.2206162810325623e-01 -8.5869535803794861e-02</leafValues></_>
        <_>
          <internalNodes>
            0 -1 230 2.0934361964464188e-03</internalNodes>
          <leafValues>
            9.4158515334129333e-02 -3.2660266757011414e-01</leafValues></_>
        <_>
          <internalNodes>
            0 -1 283 2.1366551518440247e-03</internalNodes>
          <leafValues>
            4.8079371452331543e-02 -6.4226162433624268e-01</leafValues></_>
        <_>
          <internalNodes>
            0 -1 233 -9.4292499125003815e-03</internalNodes>
          <leafValues>
            5.0448071956634521e-01 -7.2605207562446594e-02</leafValues></_>
        <_>
          <internalNodes>
            0 -1 201 -1.6656263032928109e-03</internalNodes>
          <leafValues>
            -3.4844452142715454e-01 9.9016241729259491e-02</leafValues></_>
        <_>
          <internalNodes>
            0 -1 364 -2.8204295784235001e-02</internalNodes>
          <leafValues>
            3.7966513633728027e-01 -8.9258797466754913e-02</leafValues></_>
        <_>
          <internalNodes>
            0 -1 538 -1.9972914014942944e-04</internalNodes>
          <leafValues>
            1.7846493422985077e-01 -1.7218016088008881e-01</leafValues></_>
        <_>
          <internalNodes>
            0 -1 487 1.8076971173286438e-03</internalNodes>
          <leafValues>
            -1.1797620356082916e-01 2.6032754778862000e-01</leafValues></_>
        <_>
          <internalNodes>
            0 -1 541 -9.8726130090653896e-04</internalNodes>
          <leafValues>
            -5.1951915025711060e-01 6.3598513603210449e-02</leafValues></_>
        <_>
          <internalNodes>
            0 -1 351 -1.6923096030950546e-02</internalNodes>
          <leafValues>
            2.8825286030769348e-01 -1.1133959889411926e-01</leafValues></_>
        <_>
          <internalNodes>
            0 -1 471 6.7054443061351776e-03</internalNodes>
          <leafValues>
            -8.9684672653675079e-02 3.8397607207298279e-01</leafValues></_>
        <_>
          <internalNodes>
            0 -1 414 -2.5201129913330078e-01</internalNodes>
          <leafValues>
            -1. 3.3938121050596237e-02</leafValues></_>
        <_>
          <internalNodes>
            0 -1 479 3.2595617813058197e-04</internalNodes>
          <leafValues>
            1.1212760210037231e-01 -2.6731926202774048e-01</leafValues></_>
        <_>
          <internalNodes>
            0 -1 115 -1.2419868260622025e-02</internalNodes>
          <leafValues>
            6.8805366754531860e-01 -4.3372057378292084e-02</leafValues></_>
        <_>
          <internalNodes>
            0 -1 395 1.2565556680783629e-03</internalNodes>
          <leafValues>
            9.9191427230834961e-02 -3.2588565349578857e-01</leafValues></_>
        <_>
          <internalNodes>
            0 -1 397 6.6294060088694096e-03</internalNodes>
          <leafValues>
            -4.8609457910060883e-02 7.1140688657760620e-01</leafValues></_>
        <_>
          <internalNodes>
            0 -1 431 -2.4472023360431194e-03</internalNodes>
          <leafValues>
            -4.5808297395706177e-01 7.7125124633312225e-02</leafValues></_>
        <_>
          <internalNodes>
            0 -1 456 -7.7981567301321775e-05</internalNodes>
          <leafValues>
            1.7112027108669281e-01 -1.8337009847164154e-01</leafValues></_>
        <_>
          <internalNodes>
            0 -1 2 -2.7247454971075058e-02</internalNodes>
          <leafValues>
            8.6798495054244995e-01 -3.0192578211426735e-02</leafValues></_>
        <_>
          <internalNodes>
            0 -1 164 -4.9397028982639313e-02</internalNodes>
          <leafValues>
            -1.3746811449527740e-01 2.2872710227966309e-01</leafValues></_></weakClassifiers></_>
    <!-- stage 16 -->
    <_>
      <maxWeakCount>33</maxWeakCount>
      <stageThreshold>-9.3964880704879761e-01</stageThreshold>
      <weakClassifiers>
        <_>
          <internalNodes>
            0 -1 346 3.9291060529649258e-03</internalNodes>
          <leafValues>
            -3.9052724838256836e-01 3.6231884360313416e-01</leafValues></_>
        <_>
          <internalNodes>
            0 -1 300 -1.1690158396959305e-02</internalNodes>
          <leafValues>
            5.5167341232299805e-01 -8.0619044601917267e-02</leafValues></_>
        <_>
          <internalNodes>
            0 -1 200 -5.5077869910746813e-04</internalNodes>
          <leafValues>
            2.4233129620552063e-01 -1.2661111354827881e-01</leafValues></_>
        <_>
          <internalNodes>
            0 -1 527 -6.7186760134063661e-05</internalNodes>
          <leafValues>
            1.5730984508991241e-01 -1.8909654021263123e-01</leafValues></_>
        <_>
          <internalNodes>
            0 -1 34 -2.2978689521551132e-02</internalNodes>
          <leafValues>
            6.1018860340118408e-01 -5.6900598108768463e-02</leafValues></_>
        <_>
          <internalNodes>
            0 -1 532 -2.1038237959146500e-02</internalNodes>
          <leafValues>
            -6.4058244228363037e-01 5.4427865892648697e-02</leafValues></_>
        <_>
          <internalNodes>
            0 -1 106 8.6877997964620590e-03</internalNodes>
          <leafValues>
            -6.2198467552661896e-02 3.6949381232261658e-01</leafValues></_>
        <_>
          <internalNodes>
            0 -1 134 -3.2992193009704351e-03</internalNodes>
          <leafValues>
            -4.5182511210441589e-01 6.2046043574810028e-02</leafValues></_>
        <_>
          <internalNodes>
            0 -1 138 1.8376539810560644e-04</internalNodes>
          <leafValues>
            -1.4821638166904449e-01 2.0910929143428802e-01</leafValues></_>
        <_>
          <internalNodes>
            0 -1 25 6.2393210828304291e-03</internalNodes>
          <leafValues>
            3.2329011708498001e-02 -6.1614948511123657e-01</leafValues></_>
        <_>
          <internalNodes>
            0 -1 175 -2.3996286094188690e-02</internalNodes>
          <leafValues>
            9.2660635709762573e-01 -3.2429479062557220e-02</leafValues></_>
        <_>
          <internalNodes>
            0 -1 311 -4.2163964826613665e-04</internalNodes>
          <leafValues>
            2.2408552467823029e-01 -1.4279794692993164e-01</leafValues></_>
        <_>
          <internalNodes>
            0 -1 377 -1.7529772594571114e-04</internalNodes>
          <leafValues>
            2.2175717353820801e-01 -1.4764656126499176e-01</leafValues></_>
        <_>
          <internalNodes>
            0 -1 132 -6.8924389779567719e-03</internalNodes>
          <leafValues>
            -2.5156915187835693e-01 1.3576966524124146e-01</leafValues></_>
        <_>
          <internalNodes>
            0 -1 272 1.7103931168094277e-03</internalNodes>
          <leafValues>
            7.0123374462127686e-02 -4.2491737008094788e-01</leafValues></_>
        <_>
          <internalNodes>
            0 -1 228 -1.4685454079881310e-03</internalNodes>
          <leafValues>
            2.3203462362289429e-01 -1.3281954824924469e-01</leafValues></_>
        <_>
          <internalNodes>
            0 -1 271 -1.0198836389463395e-04</internalNodes>
          <leafValues>
            1.5553791821002960e-01 -2.1151070296764374e-01</leafValues></_>
        <_>
          <internalNodes>
            0 -1 242 4.6671815216541290e-03</internalNodes>
          <leafValues>
            3.6103807389736176e-02 -7.8343468904495239e-01</leafValues></_>
        <_>
          <internalNodes>
            0 -1 215 3.3839638344943523e-03</internalNodes>
          <leafValues>
            -1.0771036148071289e-01 3.0853611230850220e-01</leafValues></_>
        <_>
          <internalNodes>
            0 -1 342 3.2183197326958179e-03</internalNodes>
          <leafValues>
            1.3747209310531616e-01 -2.4222223460674286e-01</leafValues></_>
        <_>
          <internalNodes>
            0 -1 247 -1.4497011899948120e-01</internalNodes>
          <leafValues>
            -9.0920573472976685e-01 3.3803764730691910e-02</leafValues></_>
        <_>
          <internalNodes>
            0 -1 199 -2.1079101134091616e-04</internalNodes>
          <leafValues>
            1.6315142810344696e-01 -1.8175737559795380e-01</leafValues></_>
        <_>
          <internalNodes>
            0 -1 430 2.2962256334722042e-03</internalNodes>
          <leafValues>
            5.2476894110441208e-02 -6.2292098999023438e-01</leafValues></_>
        <_>
          <internalNodes>
            0 -1 231 -2.0755405421368778e-04</internalNodes>
          <leafValues>
            1.7463180422782898e-01 -1.7676660418510437e-01</leafValues></_>
        <_>
          <internalNodes>
            0 -1 16 -4.4126915931701660e-01</internalNodes>
          <leafValues>
            -5.9937435388565063e-01 4.6409480273723602e-02</leafValues></_>
        <_>
          <internalNodes>
            0 -1 131 5.8452691882848740e-04</internalNodes>
          <leafValues>
            9.6510224044322968e-02 -3.2246947288513184e-01</leafValues></_>
        <_>
          <internalNodes>
            0 -1 408 1.6027975361794233e-03</internalNodes>
          <leafValues>
            7.9342685639858246e-02 -4.2908844351768494e-01</leafValues></_>
        <_>
          <internalNodes>
            0 -1 388 -8.6464554071426392e-02</internalNodes>
          <leafValues>
            -4.4262531399726868e-01 7.4122801423072815e-02</leafValues></_>
        <_>
          <internalNodes>
            0 -1 382 4.5717112720012665e-02</internalNodes>
          <leafValues>
            -8.8977679610252380e-02 3.7792548537254333e-01</leafValues></_>
        <_>
          <internalNodes>
            0 -1 494 -1.2890519574284554e-02</internalNodes>
          <leafValues>
            -6.0443323850631714e-01 5.4855510592460632e-02</leafValues></_>
        <_>
          <internalNodes>
            0 -1 447 1.3405783101916313e-04</internalNodes>
          <leafValues>
            -1.5142168104648590e-01 2.2072887420654297e-01</leafValues></_>
        <_>
          <internalNodes>
            0 -1 214 -2.6933629065752029e-02</internalNodes>
          <leafValues>
            -6.3225424289703369e-01 4.6429093927145004e-02</leafValues></_>
        <_>
          <internalNodes>
            0 -1 125 -2.2239235113374889e-04</internalNodes>
          <leafValues>
            1.6248969733715057e-01 -2.0931965112686157e-01</leafValues></_></weakClassifiers></_>
    <!-- stage 17 -->
    <_>
      <maxWeakCount>32</maxWeakCount>
      <stageThreshold>-1.0116800069808960e+00</stageThreshold>
      <weakClassifiers>
        <_>
          <internalNodes>
            0 -1 259 2.3629808798432350e-02</internalNodes>
          <leafValues>
            -3.7673610448837280e-01 6.1111110448837280e-01</leafValues></_>
        <_>
          <internalNodes>
            0 -1 369 -1.0506436228752136e-03</internalNodes>
          <leafValues>
            2.8816577792167664e-01 -1.3258117437362671e-01</leafValues></_>
        <_>
          <internalNodes>
            0 -1 243 1.2330290675163269e-01</internalNodes>
          <leafValues>
            5.0653629004955292e-02 -7.5435507297515869e-01</leafValues></_>
        <_>
          <internalNodes>
            0 -1 353 -9.3455682508647442e-04</internalNodes>
          <leafValues>
            2.6599574089050293e-01 -1.3153655827045441e-01</leafValues></_>
        <_>
          <internalNodes>
            0 -1 326 -5.3423028439283371e-03</internalNodes>
          <leafValues>
            6.1643487215042114e-01 -3.8484264165163040e-02</leafValues></_>
        <_>
          <internalNodes>
            0 -1 435 1.7223751172423363e-02</internalNodes>
          <leafValues>
            3.3118613064289093e-02 -9.1898989677429199e-01</leafValues></_>
        <_>
          <internalNodes>
            0 -1 101 4.7105653211474419e-03</internalNodes>
          <leafValues>
            -9.3945644795894623e-02 2.9368516802787781e-01</leafValues></_>
        <_>
          <internalNodes>
            0 -1 99 -5.5083343759179115e-03</internalNodes>
          <leafValues>
            3.7416040897369385e-01 -8.6958095431327820e-02</leafValues></_>
        <_>
          <internalNodes>
            0 -1 307 8.0433528637513518e-04</internalNodes>
          <leafValues>
            4.7421347349882126e-02 -6.0015612840652466e-01</leafValues></_>
        <_>
          <internalNodes>
            0 -1 469 1.3310652226209641e-02</internalNodes>
          <leafValues>
            -4.7604825347661972e-02 5.3633004426956177e-01</leafValues></_>
        <_>
          <internalNodes>
            0 -1 439 1.6364323673769832e-03</internalNodes>
          <leafValues>
            6.1226878315210342e-02 -4.7695922851562500e-01</leafValues></_>
        <_>
          <internalNodes>
            0 -1 402 -5.6730601936578751e-03</internalNodes>
          <leafValues>
            3.0180692672729492e-01 -1.1487596482038498e-01</leafValues></_>
        <_>
          <internalNodes>
            0 -1 306 -3.5469271242618561e-03</internalNodes>
          <leafValues>
            -3.8241285085678101e-01 6.9286607205867767e-02</leafValues></_>
        <_>
          <internalNodes>
            0 -1 424 -5.8595282025635242e-03</internalNodes>
          <leafValues>
            4.5098701119422913e-01 -7.0141986012458801e-02</leafValues></_>
        <_>
          <internalNodes>
            0 -1 248 -2.5970630347728729e-02</internalNodes>
          <leafValues>
            -5.7702279090881348e-01 4.8918310552835464e-02</leafValues></_>
        <_>
          <internalNodes>
            0 -1 440 -1.0303645103704184e-04</internalNodes>
          <leafValues>
            1.9864766299724579e-01 -1.4674417674541473e-01</leafValues></_>
        <_>
          <internalNodes>
            0 -1 375 -3.9048481994541362e-05</internalNodes>
          <leafValues>
            1.6487149894237518e-01 -1.7652450501918793e-01</leafValues></_>
        <_>
          <internalNodes>
            0 -1 427 6.2643298879265785e-03</internalNodes>
          <leafValues>
            6.5528623759746552e-02 -4.9157804250717163e-01</leafValues></_>
        <_>
          <internalNodes>
            0 -1 147 -9.1600453015416861e-04</internalNodes>
          <leafValues>
            1.8195250630378723e-01 -1.4923344552516937e-01</leafValues></_>
        <_>
          <internalNodes>
            0 -1 92 -2.7730993460863829e-03</internalNodes>
          <leafValues>
            -3.7697866559028625e-01 6.9016143679618835e-02</leafValues></_>
        <_>
          <internalNodes>
            0 -1 304 5.1732929423451424e-03</internalNodes>
          <leafValues>
            -1.3695950806140900e-01 2.2805152833461761e-01</leafValues></_>
        <_>
          <internalNodes>
            0 -1 140 -9.8986893892288208e-02</internalNodes>
          <leafValues>
            5.9658247232437134e-01 -5.7496506720781326e-02</leafValues></_>
        <_>
          <internalNodes>
            0 -1 26 1.8610041588544846e-02</internalNodes>
          <leafValues>
            5.8861926198005676e-02 -7.0548111200332642e-01</leafValues></_>
        <_>
          <internalNodes>
            0 -1 513 -8.7334569543600082e-03</internalNodes>
          <leafValues>
            -6.0940641164779663e-01 4.6739023178815842e-02</leafValues></_>
        <_>
          <internalNodes>
            0 -1 426 1.0755384573712945e-04</internalNodes>
          <leafValues>
            1.4192284643650055e-01 -2.0983175933361053e-01</leafValues></_>
        <_>
          <internalNodes>
            0 -1 396 1.7710851971060038e-03</internalNodes>
          <leafValues>
            -4.3963126838207245e-02 7.5173693895339966e-01</leafValues></_>
        <_>
          <internalNodes>
            0 -1 246 -7.7829211950302124e-03</internalNodes>
          <leafValues>
            -7.1315604448318481e-01 4.3668966740369797e-02</leafValues></_>
        <_>
          <internalNodes>
